net
{
	propagationenginegenerator1791944048146838126L = "edu.ucla.belief.approx.BeliefPropagationSettings@75f68722";
	recoveryenginegenerator6944530267470113528l = "edu.ucla.util.SettingsImpl@716b6673";
	node_size = (130.0 55.0);
	huginenginegenerator3061656038650325130L = "edu.ucla.belief.inference.JoinTreeSettings@66867263";
}

node Assets
{
	states = ("High" "Medium" "Low" );
	position = (763 -272);
	DSLxEXTRA_DEFINITIONxMANDATORY = "false";
	diagnosistype = "AUXILIARY";
	label = "Assets";
	DSLxPOSITIONxWIDTH = "70";
	DSLxEXTRA_DEFINITIONxDIAGNOSIS_TYPE = "AUXILIARY";
	excludepolicy = "include whole CPT";
	DSLxTYPE = "CPT";
	DSLxPOSITIONxHEIGHT = "30";
	DSLxEXTRA_DEFINITIONxRANKED = "false";
	ismapvariable = "false";
	ID = "Worth";
}
node DebtIncomeRatio
{
	states = ("Low" "High" );
	position = (370 -151);
	DSLxEXTRA_DEFINITIONxMANDATORY = "false";
	diagnosistype = "AUXILIARY";
	label = "Ratio of Debts To Income";
	DSLxPOSITIONxWIDTH = "81";
	DSLxEXTRA_DEFINITIONxDIAGNOSIS_TYPE = "AUXILIARY";
	excludepolicy = "include whole CPT";
	DSLxTYPE = "CPT";
	DSLxPOSITIONxHEIGHT = "30";
	DSLxEXTRA_DEFINITIONxRANKED = "false";
	ismapvariable = "false";
	ID = "RatioDebInc";
}
node FutureIncome
{
	states = ("Promising" "Not_promising" );
	position = (566 -358);
	DSLxEXTRA_DEFINITIONxMANDATORY = "false";
	diagnosistype = "AUXILIARY";
	label = "Future Income";
	DSLxPOSITIONxWIDTH = "90";
	DSLxEXTRA_DEFINITIONxDIAGNOSIS_TYPE = "AUXILIARY";
	excludepolicy = "include whole CPT";
	DSLxTYPE = "CPT";
	DSLxPOSITIONxHEIGHT = "30";
	DSLxEXTRA_DEFINITIONxRANKED = "false";
	ismapvariable = "false";
	ID = "FutureIncome";
}
node Income
{
	states = ("High" "Medium" "Low" );
	position = (575 -153);
	DSLxEXTRA_DEFINITIONxMANDATORY = "false";
	diagnosistype = "AUXILIARY";
	label = "Income";
	DSLxPOSITIONxWIDTH = "83";
	DSLxEXTRA_DEFINITIONxDIAGNOSIS_TYPE = "AUXILIARY";
	excludepolicy = "include whole CPT";
	DSLxTYPE = "CPT";
	DSLxPOSITIONxHEIGHT = "30";
	DSLxEXTRA_DEFINITIONxRANKED = "false";
	ismapvariable = "false";
	ID = "Profession";
}
node Reliability
{
	states = ("Reliable" "Unreliable" );
	position = (109 -353);
	DSLxEXTRA_DEFINITIONxMANDATORY = "false";
	diagnosistype = "AUXILIARY";
	label = "Reliability";
	DSLxPOSITIONxWIDTH = "70";
	DSLxEXTRA_DEFINITIONxDIAGNOSIS_TYPE = "AUXILIARY";
	excludepolicy = "include whole CPT";
	DSLxTYPE = "CPT";
	DSLxPOSITIONxHEIGHT = "30";
	DSLxEXTRA_DEFINITIONxRANKED = "false";
	ismapvariable = "false";
	ID = "Reliability";
}
node CreditWorthiness
{
	states = ("Positive" "Negative" );
	position = (359 -473);
	DSLxEXTRA_DEFINITIONxMANDATORY = "false";
	diagnosistype = "AUXILIARY";
	label = "Credit Worthiness";
	DSLxPOSITIONxWIDTH = "100";
	DSLxEXTRA_DEFINITIONxDIAGNOSIS_TYPE = "AUXILIARY";
	excludepolicy = "include whole CPT";
	DSLxTYPE = "CPT";
	DSLxPOSITIONxHEIGHT = "30";
	DSLxEXTRA_DEFINITIONxRANKED = "false";
	ismapvariable = "false";
	ID = "CreditWorthiness";
}
node PaymentHistory
{
	states = ("Excellent" "Acceptable" "Unacceptable" );
	position = (183 -239);
	DSLxEXTRA_DEFINITIONxMANDATORY = "false";
	diagnosistype = "AUXILIARY";
	label = "Payment History";
	DSLxPOSITIONxWIDTH = "93";
	DSLxEXTRA_DEFINITIONxDIAGNOSIS_TYPE = "AUXILIARY";
	excludepolicy = "include whole CPT";
	DSLxTYPE = "CPT";
	DSLxPOSITIONxHEIGHT = "30";
	DSLxEXTRA_DEFINITIONxRANKED = "false";
	ismapvariable = "false";
	ID = "PaymentHistory";
}
node Age
{
	states = ("Between16and21" "Between22and64" "Over65" );
	position = (18 -153);
	DSLxEXTRA_DEFINITIONxMANDATORY = "false";
	diagnosistype = "AUXILIARY";
	label = "Age";
	DSLxPOSITIONxWIDTH = "70";
	DSLxEXTRA_DEFINITIONxDIAGNOSIS_TYPE = "AUXILIARY";
	excludepolicy = "include whole CPT";
	DSLxTYPE = "CPT";
	DSLxPOSITIONxHEIGHT = "30";
	DSLxEXTRA_DEFINITIONxRANKED = "false";
	ismapvariable = "false";
	ID = "Age";
}
potential ( Assets | Income )
{
	data = ((	0.33	0.33	0.33999999999999997	)
		(	0.33	0.33	0.33999999999999997	)
		(	0.33	0.33	0.33999999999999997	));
}
potential ( DebtIncomeRatio | )
{
	data = (	0.5	0.5	);
}
potential ( FutureIncome | Income Assets )
{
	data = (((	0.5000000000000001	0.5	)
		(	0.5000000000000001	0.5	)
		(	0.5000000000000001	0.5	))
		((	0.5000000000000001	0.5	)
		(	0.5000000000000001	0.5	)
		(	0.5000000000000001	0.5	))
		((	0.5000000000000001	0.5	)
		(	0.5000000000000001	0.5	)
		(	0.5000000000000001	0.5	)));
}
potential ( Income | )
{
	data = (	0.3333333333333333	0.3333333333333333	0.3333333333333333	);
}
potential ( Reliability | Age PaymentHistory )
{
	data = (((	0.5	0.5	)
		(	0.5	0.5	)
		(	0.5	0.5	))
		((	0.5	0.5	)
		(	0.5	0.5	)
		(	0.5	0.5	))
		((	0.5	0.5	)
		(	0.5	0.5	)
		(	0.5	0.5	)));
}
potential ( CreditWorthiness | Reliability DebtIncomeRatio FutureIncome )
{
	data = ((((	0.5	0.5	)
		(	0.5	0.5	))
		((	0.5	0.5	)
		(	0.5	0.5	)))
		(((	0.5	0.5	)
		(	0.5	0.5	))
		((	0.5	0.5	)
		(	0.5	0.5	))));
}
potential ( PaymentHistory | Age DebtIncomeRatio )
{
	data = (((	0.33999999999999997	0.33	0.33	)
		(	0.33999999999999997	0.33	0.33	))
		((	0.33999999999999997	0.33	0.33	)
		(	0.33999999999999997	0.33	0.33	))
		((	0.33999999999999997	0.33	0.33	)
		(	0.33999999999999997	0.33	0.33	)));
}
potential ( Age | )
{
	data = (	0.33999999999999997	0.33	0.33	);
}
